/*!
 * The following copyright notice may not be removed under any circumstances.
 *
 * Copyright:
 * Copyright 2009, TypeGirl!. All rights reserved.
 *
 * Manufacturer:
 * NJ McLellan
 *
 * Designer:
 * NJ McLellan
 */
Cufon.registerFont({"w":1137,"face":{"font-family":"Gayatri","font-weight":400,"font-stretch":"normal","units-per-em":"2000","panose-1":"0 0 0 0 0 0 0 0 0 0","ascent":"1500","descent":"-500","bbox":"-342 -1300 1680 350.009","underline-thickness":"100","underline-position":"-100","unicode-range":"U+0020-U+007D"},"glyphs":{" ":{"w":400},"\u00a0":{"w":400},"C":{"d":"0,-826v6,-242,133,-374,376,-374r636,0r-250,250r-362,0v-96,0,-143,50,-144,146r0,410v0,94,50,144,144,144r612,0r0,250r-636,0v-242,-8,-376,-134,-376,-378r0,-448"},"D":{"d":"1012,-378v2,238,-143,378,-376,378r-636,0r0,-1200r636,0v239,4,376,138,376,374r0,448xm756,-804v-1,-93,-50,-147,-146,-146r-354,0r0,876r176,-176r178,0v95,-2,146,-49,146,-144r0,-410"},"E":{"d":"0,-824v-1,-273,112,-376,376,-376r636,0r0,250r-618,0v-106,-1,-138,39,-138,140r0,261r176,-176r580,0r0,250r-756,0r0,85v-1,100,32,140,138,140r618,0r0,250r-636,0v-193,0,-313,-55,-355,-204v-14,-48,-21,-107,-21,-174r0,-446"},"F":{"d":"394,-950v-106,0,-138,37,-138,140r0,261r176,-176r580,0r0,250r-756,0r0,475r-256,0r0,-824v-8,-262,113,-376,376,-376r636,0r0,250r-618,0"},"G":{"d":"374,0v-236,-6,-374,-136,-374,-378r0,-448v6,-241,133,-374,374,-374r638,0r0,250r-612,0v-96,0,-143,50,-144,146r0,410v0,94,50,144,144,144r356,0r0,-225r-334,0r250,-250r340,0r0,725r-638,0"},"H":{"d":"256,-1200r0,651r176,-176r324,0r0,-475r256,0r0,1200r-256,0r0,-475r-500,0r0,475r-256,0r0,-1200r256,0"},"I":{"d":"256,-1200r0,1200r-256,0r0,-1200r256,0","w":381},"K":{"d":"432,-725v130,-8,324,39,324,-96r0,-379r256,0r0,424r-176,176r176,0r0,600r-256,0r0,-475r-500,0r0,475r-256,0r0,-1200r256,0r0,651"},"L":{"d":"378,0v-263,5,-378,-116,-378,-378r0,-822r256,0r0,810v0,105,35,140,140,140r388,0r0,250r-406,0","w":909},"M":{"d":"1442,-1200r0,1200r-256,0r0,-906r-328,906r-272,0r-330,-906r0,906r-256,0r0,-1200r420,0r302,826r300,-826r420,0","w":1567},"N":{"d":"1012,-1200r0,1200r-308,0r-448,-780r0,780r-256,0r0,-1200r308,0r448,778r0,-778r256,0"},"O":{"d":"374,0v-233,-3,-374,-141,-374,-378r0,-448v4,-243,134,-374,374,-374r392,0v239,3,374,139,374,374r0,448v0,237,-140,378,-374,378r-392,0xm398,-950v-94,0,-142,49,-142,144r0,732r176,-176r310,0v93,-1,142,-50,142,-144r0,-412v0,-95,-48,-144,-142,-144r-344,0","w":1265},"P":{"d":"1012,-763v-2,207,-130,288,-348,288r-408,0r0,475r-256,0r0,-1200r664,0v218,0,346,81,348,286r0,151xm430,-725v141,-11,326,52,326,-127v0,-74,-53,-98,-126,-98r-374,0r0,401"},"Q":{"d":"374,0v-233,-3,-374,-141,-374,-378r0,-448v4,-243,134,-374,374,-374r392,0v239,3,374,139,374,374r0,400r-172,176r422,0r-250,250r-766,0xm400,-950v-96,1,-144,49,-144,144r0,732r176,-176r452,0r0,-556v0,-96,-48,-144,-144,-144r-340,0","w":1415},"R":{"d":"664,-1200v218,0,346,81,348,286r0,138r-176,176r176,0r0,600r-256,0r0,-475r-500,0r0,475r-256,0r0,-1200r664,0xm432,-725v140,-11,324,52,324,-127v0,-74,-53,-98,-126,-98r-374,0r0,401"},"S":{"d":"756,-344v6,-94,-34,-131,-126,-131r-284,0v-217,0,-344,-82,-346,-288r0,-151v0,-191,115,-286,346,-286r634,0r0,250r-598,0v-91,-1,-132,35,-126,129v4,71,48,96,126,96r282,0v218,-2,346,84,348,286r0,153v0,191,-116,286,-348,286r-664,0r250,-250r380,0v77,0,121,-25,126,-94"},"T":{"d":"1012,-1200r0,250r-378,0r0,950r-256,0r0,-950r-378,0r250,-250r762,0"},"U":{"d":"740,-250v94,-1,144,-50,144,-144r0,-806r256,0r0,822v-4,244,-138,378,-376,378r-390,0v-233,-3,-374,-141,-374,-378r0,-822r256,0r0,1126r176,-176r308,0","w":1265},"V":{"d":"-40,-1200r272,0r342,944r344,-944r272,0r-436,1200r-358,0","w":1205},"W":{"d":"1198,-388r216,-812r266,0r-322,1200r-322,0r-216,-812r-218,812r-322,0r-320,-1200r264,0r218,812r216,-812r322,0","w":1695},"X":{"d":"536,-824r264,-376r312,0r-420,600r420,600r-312,0r-264,-378r-264,378r-312,0r420,-600r-420,-600r312,0","w":1127},"Y":{"d":"664,-560r0,560r-256,0r0,-560r-448,-640r312,0r264,376r264,-376r312,0","w":1127},"Z":{"d":"0,-272r674,-678r-674,0r0,-250r1012,0r0,272r-674,678r674,0r0,250r-1012,0r0,-272"},"9":{"d":"348,-475v-219,0,-346,-81,-348,-288r0,-153v0,-189,116,-284,348,-284r318,0v231,0,346,95,346,284r0,630v-2,204,-131,286,-346,286r-666,0r250,-250r380,0v77,0,126,-25,126,-94r0,-131r-408,0xm256,-854v-6,93,35,129,126,129r374,0r0,-129v-2,-71,-48,-96,-126,-96r-248,0v-78,0,-122,25,-126,96"},"8":{"d":"756,-344v3,-82,-25,-131,-96,-131r-310,0v-57,4,-96,34,-96,92r0,309r178,-176v129,-9,319,40,324,-94xm346,0v-216,0,-344,-81,-346,-286r0,-138r176,-176r-176,0r0,-316v0,-189,115,-284,346,-284r318,0v232,0,348,95,348,284r0,140r-176,176r176,0r0,314v-4,209,-130,286,-348,286r-318,0xm254,-854v-7,94,38,129,128,129r248,0v91,1,132,-35,126,-129v-4,-71,-48,-96,-126,-96r-248,0v-78,0,-124,24,-128,96"},"7":{"d":"1012,-1200r0,250r-550,950r-296,0r550,-950r-716,0r250,-250r762,0"},"6":{"d":"664,-725v217,2,344,77,348,286r0,155v0,189,-116,284,-348,284r-316,0v-232,0,-348,-95,-348,-284r0,-630v2,-201,133,-286,348,-286r664,0r-250,250r-380,0v-75,1,-126,24,-126,96r0,129r408,0xm758,-344v6,-93,-37,-131,-126,-131r-376,0r0,131v3,70,52,93,126,94r250,0v74,1,122,-28,126,-94"},"5":{"d":"758,-344v6,-94,-38,-131,-128,-131r-630,0r0,-725r980,0r0,250r-724,0r0,225r410,0v216,0,344,81,346,286r0,155v0,189,-115,284,-346,284r-666,0r250,-250r380,0v75,1,123,-28,128,-94"},"4":{"d":"630,-838r-292,338r292,0r0,-338xm886,-1200r0,700r126,0r0,250r-126,0r0,250r-256,0r0,-250r-630,0r0,-250r606,-700r280,0"},"3":{"d":"630,-250v74,0,125,-25,126,-94r0,-131r-756,0r250,-250r380,0v88,1,132,-35,126,-129v-4,-71,-52,-96,-126,-96r-630,0r250,-250r414,0v232,0,348,95,348,284r0,140r-176,176r176,0r0,316v0,189,-116,284,-348,284r-664,0r250,-250r380,0"},"2":{"d":"0,-439v4,-209,132,-286,348,-286r282,0v88,1,132,-37,126,-129v-4,-67,-52,-96,-126,-96r-380,0r-250,-250r664,0v232,0,348,95,348,284r0,153v-2,203,-132,288,-348,288r-282,0v-74,1,-126,24,-126,94r0,131r724,0r0,250r-980,0r0,-439"},"1":{"d":"256,-1200r0,1200r-256,0r0,-1200r256,0","w":381},"0":{"d":"376,0v-244,-3,-376,-133,-376,-374r0,-452v2,-184,84,-297,218,-349v45,-17,97,-25,158,-25r388,0v233,-1,376,140,376,374r0,452v-5,234,-134,374,-376,374r-388,0xm400,-950v-96,0,-144,48,-144,144r0,414v0,94,49,142,144,142r340,0v95,0,144,-48,144,-142r0,-414v0,-96,-48,-144,-144,-144r-340,0","w":1265},"a":{"d":"383,-350v-78,0,-126,27,-126,100r371,0r0,-100r-245,0xm573,-950v192,13,311,93,311,287r0,663r-256,0r0,-176r-176,176r-452,0r0,-315v0,-190,116,-285,347,-285r281,0v-2,-73,-48,-100,-126,-100r-502,0r250,-250r323,0","w":1009},"b":{"d":"502,-700v-112,1,-246,-18,-246,95r0,531r176,-176v101,3,197,1,197,-95r0,-260v-3,-70,-51,-95,-127,-95xm884,-287v-2,203,-131,288,-347,287r-537,0r0,-1300r256,0r0,526r176,-176r105,0v231,0,347,95,347,285r0,378","w":1009},"c":{"d":"256,-345v2,69,50,95,126,95r502,0r0,250r-537,0v-216,1,-347,-83,-347,-287r0,-378v0,-190,116,-285,347,-285r537,0r-250,250r-252,0v-76,0,-126,26,-126,95r0,260","w":1009},"d":{"d":"256,-345v2,69,50,95,126,95r246,0r0,-626r-176,176v-100,-4,-196,0,-196,95r0,260xm347,0v-216,1,-347,-83,-347,-287r0,-378v0,-190,116,-285,347,-285r281,0r0,-350r256,0r0,1300r-256,0r0,-176r-176,176r-105,0","w":1009},"e":{"d":"518,-700v-116,0,-262,-23,-262,97r0,179r176,-176r212,0v1,-73,-50,-100,-126,-100xm311,0v-195,-11,-311,-94,-311,-287r0,-378v0,-190,116,-285,347,-285r190,0v231,0,347,95,347,285r0,315r-628,0v2,73,47,100,126,100r502,0r-250,250r-323,0","w":1009},"f":{"d":"382,-1050v-76,0,-126,27,-126,95r0,181r176,-176r196,0r0,250r-372,0r0,700r-256,0r0,-1015v0,-190,116,-285,348,-285r280,0r0,250r-246,0","w":753},"g":{"d":"373,-1v-229,6,-372,-74,-373,-287r0,-377v0,-190,116,-285,347,-285r190,0v231,0,347,95,347,285r0,731v-2,201,-132,284,-347,284r-537,0r250,-250r252,0v75,0,126,-25,126,-94r0,-182r-176,176xm502,-700v-113,1,-247,-18,-247,95r0,260v3,70,51,95,127,95r246,0r0,-355v-1,-70,-51,-95,-126,-95","w":1009},"h":{"d":"628,-605v-1,-70,-51,-95,-126,-95r-247,0r0,700r-255,0r0,-1300r255,0r0,526r177,-176r105,0v231,0,347,95,347,285r0,665r-256,0r0,-605","w":1009},"i":{"d":"256,-1300r0,250r-256,0r0,-250r256,0xm0,0r256,0r0,-950r-256,0r0,950","w":381},"j":{"d":"0,-1300r256,0r0,250r-256,0r0,-250xm256,64v-2,203,-132,287,-348,286r-250,0r250,-250v53,-6,93,-36,92,-93r0,-957r256,0r0,1014","w":381},"k":{"d":"432,-600v100,4,197,-1,197,-96r0,-254r255,0r0,299r-176,176r176,0r0,475r-255,0r0,-350r-373,0r0,350r-256,0r0,-1300r256,0r0,876","w":1009},"l":{"d":"0,0r0,-1300r256,0r0,1300r-256,0","w":381},"m":{"d":"1000,-605v1,-112,-132,-95,-244,-95r0,700r-256,0r0,-700r-244,0r0,700r-256,0r0,-950r256,0r0,176r176,-176r534,0v193,17,290,112,290,285r0,665r-256,0r0,-605","w":1381},"n":{"d":"628,-605v-1,-69,-52,-95,-127,-95r-245,0r0,700r-256,0r0,-950r256,0r0,176r176,-176r105,0v231,0,347,95,347,285r0,665r-256,0r0,-605","w":1009},"o":{"d":"347,0v-216,1,-347,-83,-347,-287r0,-378v0,-190,116,-285,347,-285r190,0v231,0,347,95,347,285r0,378v-2,203,-131,288,-347,287r-190,0xm501,-700v-112,1,-245,-18,-245,95r0,531r176,-176v100,4,196,0,196,-95r0,-260v-1,-69,-52,-95,-127,-95","w":1009},"p":{"d":"628,-605v-1,-68,-53,-95,-126,-95r-246,0r0,626r176,-176v99,4,196,-2,196,-95r0,-260xm536,-950v217,-1,348,83,348,287r0,378v0,190,-116,285,-348,285r-280,0r0,350r-256,0r0,-1300r256,0r0,176r176,-176r104,0","w":1009},"q":{"d":"383,-250v112,0,245,16,245,-95r0,-531r-176,176v-100,-4,-195,1,-196,95r0,260v3,69,53,95,127,95xm0,-663v2,-203,131,-288,347,-287r537,0r0,1300r-256,0r0,-526r-176,176r-105,0v-231,0,-347,-95,-347,-285r0,-378","w":1009},"r":{"d":"382,-700v-76,0,-126,26,-126,95r0,605r-256,0r0,-950r256,0r0,176r176,-176r196,0r0,250r-246,0","w":753},"s":{"d":"502,-250v75,0,127,-27,126,-100r-628,0r0,-315v0,-190,116,-285,347,-285r537,0r0,250r-503,0v-77,0,-126,26,-126,98r0,178r177,-176r452,0r0,315v0,190,-116,285,-348,285r-536,0r250,-250r252,0","w":1009},"t":{"d":"256,-345v2,69,51,95,126,95r246,0r0,250r-281,0v-231,0,-347,-95,-347,-285r0,-1015r256,0r0,526r176,-176r196,0r0,250r-372,0r0,355","w":753},"u":{"d":"256,-345v1,69,53,95,126,95r246,0r0,-700r256,0r0,950r-256,0r0,-176r-176,176r-105,0v-231,0,-347,-95,-347,-285r0,-665r256,0r0,605","w":1009},"w":{"d":"256,-345v-1,112,132,95,244,95r0,-700r256,0r0,700r244,0r0,-700r256,0r0,950r-256,0r0,-176r-176,176r-534,0v-193,-17,-290,-112,-290,-285r0,-665r256,0r0,605","w":1381},"x":{"d":"382,-350v-76,0,-126,25,-126,95r0,255r-256,0r0,-299r176,-176r-176,0r0,-475r256,0r0,350r245,0v74,0,127,-26,127,-96r0,-254r256,0r0,299r-176,176r176,0r0,475r-256,0r0,-350r-246,0","w":1009},"y":{"d":"373,0v-229,6,-372,-74,-373,-287r0,-663r256,0r0,605v2,70,50,95,126,95r246,0r0,-700r256,0r0,1014v-2,202,-131,287,-347,286r-537,0r250,-250r251,0v75,0,127,-24,127,-94r0,-182r-176,176r-79,0","w":1009},"z":{"d":"884,0r-884,0r0,-250r502,-450r-502,0r0,-250r884,0r-1,250r-501,450r502,0r0,250","w":1009},"{":{"d":"126,-820v0,-249,144,-384,399,-380r0,250v-107,-1,-152,64,-144,176r-176,174r176,0r0,206v0,95,48,145,144,144r0,250v-253,8,-399,-134,-399,-380v-1,-68,-53,-95,-126,-95r0,-250v75,0,126,-26,126,-95","w":650},"}":{"d":"399,-380v0,250,-144,384,-399,380r0,-250v107,1,152,-63,144,-176r176,-174r-176,0r0,-206v0,-94,-48,-145,-144,-144r0,-250v253,-8,399,134,399,380v1,68,53,95,126,95r0,250v-76,0,-126,26,-126,95","w":650},"[":{"d":"400,-1200r0,250r-144,0r0,700r144,0r0,250r-400,0r0,-1200r400,0","w":525},"\\":{"d":"397,0r-437,-1200r272,0r437,1200r-272,0","w":684},"]":{"d":"0,0r0,-250r144,0r0,-700r-144,0r0,-250r400,0r0,1200r-400,0","w":525},"_":{"d":"1012,-250r0,250r-1012,0r0,-250r1012,0"},"<":{"d":"178,-1200r272,0r-218,600r218,600r-272,0r-218,-600","w":465},">":{"d":"232,0r-272,0r218,-600r-218,-600r272,0r218,600","w":465},"=":{"d":"0,-550r884,0r0,250r-884,0r0,-250xm0,-900r884,0r0,250r-884,0r0,-250","w":1009},":":{"d":"256,-250r0,250r-256,0r0,-250r256,0xm256,-600r0,250r-256,0r0,-250r256,0","w":381},";":{"d":"0,-600r256,0r0,250r-256,0r0,-250xm0,-250r256,0v-9,130,29,294,-45,368v-27,27,-63,51,-110,55r-101,-102v51,-2,102,9,130,-21v13,-15,22,-31,23,-50r-153,0r0,-250","w":381},"?":{"d":"256,0r-256,0r0,-250r256,0r0,250xm1012,-760v-2,202,-132,287,-347,286r-409,0r0,124r-256,0r0,-375r631,0v89,1,132,-36,126,-130v-4,-69,-51,-95,-126,-95r-631,0r250,-250r415,0v231,0,347,95,347,285r0,155"},"@":{"d":"706,-559v-79,9,-212,-31,-213,54r213,0r0,-54xm847,-212v119,-80,213,-198,213,-389v0,-216,-124,-355,-281,-425v-110,-49,-249,-49,-359,0v-157,71,-282,208,-282,425v0,217,125,355,282,425v56,24,116,36,179,36r0,139v-281,-8,-462,-163,-552,-367v-63,-143,-63,-323,0,-466v91,-205,270,-366,552,-366v281,0,462,162,553,366v59,134,63,303,10,443v-76,195,-232,335,-456,380r0,-452r-97,96r-257,0r0,-173v0,-105,64,-157,191,-157r163,0v0,-37,-28,-54,-69,-53r-284,0r138,-139r185,1v105,5,171,53,171,157r0,519","w":1324},"!":{"d":"0,0r0,-250r256,0r0,250r-256,0xm256,-350r-256,0r0,-850r256,0r0,850","w":381},"#":{"d":"615,-179r-180,0r0,179r-256,0r0,-179r-179,0r0,-256r179,0r0,-180r-179,0r0,-256r179,0r0,-179r256,0r0,179r180,0r0,-179r256,0r0,179r179,0r0,256r-179,0r0,180r179,0r0,256r-179,0r0,179r-256,0r0,-179xm435,-435r180,0r0,-180r-180,0r0,180","w":1175},"$":{"d":"634,-250v86,1,129,-37,123,-129v-4,-66,-51,-95,-123,-95r0,224xm378,-950v-86,0,-129,37,-123,129v5,67,50,95,123,95r0,-224xm634,-726v233,-7,377,73,378,287r0,155v0,189,-116,284,-347,284r-665,0r250,-250r128,0r0,-224v-231,7,-377,-73,-378,-286r0,-154v0,-191,116,-286,347,-286r665,0r-250,250r-128,0r0,224"},"%":{"d":"958,-291v-36,2,-94,-14,-91,27v3,39,-16,105,27,104v38,-1,94,12,91,-27v-3,-39,16,-106,-27,-104xm853,0v-89,-1,-141,-53,-141,-141r0,-169v-2,-86,55,-141,141,-141r146,0v89,-1,141,53,141,141r0,169v-3,90,-51,141,-141,141r-146,0xm246,-1040v-36,2,-95,-14,-91,27v4,39,-17,105,27,103v36,-2,95,14,91,-27v-3,-39,17,-106,-27,-103xm141,-750v-89,2,-142,-55,-141,-141r0,-168v-1,-86,52,-141,141,-141r146,0v89,-2,142,55,141,141r0,168v1,86,-52,141,-141,141r-146,0xm828,-1200r312,0r-828,1200r-312,0","w":1265},"&":{"d":"379,-950v-72,1,-122,27,-123,95r0,130r123,0r0,-225xm379,-475v-87,-1,-129,38,-123,130v4,67,50,95,123,95r0,-225xm762,-475r-128,0r0,225r378,0r-250,250r-414,0v-232,0,-348,-95,-348,-285r0,-139r176,-176r-176,0r0,-315v0,-190,116,-285,348,-285r286,0r0,475r378,0"},"(":{"d":"0,-825v1,-244,145,-382,399,-375r0,250v-96,-1,-144,51,-144,145r0,411v0,95,48,145,144,144r0,250v-252,8,-398,-133,-399,-377r0,-448","w":524},")":{"d":"399,-375v-2,245,-145,382,-399,375r0,-250v96,0,144,-50,144,-145r0,-411v0,-94,-48,-145,-144,-144r0,-250v252,-8,398,133,399,377r0,448","w":524},"*":{"d":"0,-464r233,-135r-233,-135r62,-108r234,135r0,-270r124,0r0,270r234,-135r62,108r-234,135r234,135r-62,108r-234,-135r0,270r-124,0r0,-270r-234,135","w":841},"+":{"d":"0,-725r317,0r0,-317r250,0r0,317r317,0r0,250r-317,0r0,317r-250,0r0,-317r-317,0r0,-250","w":1009},",":{"d":"0,-250r256,0v-9,130,29,294,-45,368v-27,27,-63,51,-110,55r-101,-102v51,-2,102,9,130,-21v13,-15,22,-31,23,-50r-153,0r0,-250","w":381},"-":{"d":"756,-725r0,250r-756,0r0,-250r756,0","w":881},".":{"d":"256,-250r0,250r-256,0r0,-250r256,0","w":381},"\/":{"d":"397,-1200r272,0r-437,1200r-272,0","w":684},"A":{"d":"323,-250r-91,250r-272,0r436,-1200r358,0r438,1200r-272,0r-91,-250r-506,0xm738,-500r-162,-444r-225,617r173,-173r214,0","w":1207},"J":{"d":"388,-250v105,0,140,-35,140,-140r0,-810r256,0r0,822v-1,263,-104,378,-378,378r-406,0r250,-250r138,0","w":909},"v":{"d":"467,-304r234,-646r272,0r-345,950r-322,0r-346,-950r272,0","w":988},"B":{"d":"432,-250v130,-7,323,38,324,-94r0,-131r-500,0r0,401xm0,-1200r664,0v232,0,348,95,348,286r0,140r-176,174r176,0r0,314v0,191,-116,286,-348,286r-664,0r0,-1200xm756,-819v4,-93,-37,-131,-126,-131r-374,0r0,401r176,-176v130,-7,318,38,324,-94"},"'":{"d":"0,-1200r256,0r0,423r-256,0r0,-423","w":381},"\"":{"d":"0,-1200r256,0r0,423r-256,0r0,-423xm320,-1200r256,0r0,423r-256,0r0,-423","w":701}}});
